<?xml version="1.0"?>
<opencv_storage>
<cascade>
  <stageType>BOOST</stageType>
  <featureType>LBP</featureType>
  <height>40</height>
  <width>40</width>
  <stageParams>
    <boostType>GAB</boostType>
    <minHitRate>9.9500000476837158e-01</minHitRate>
    <maxFalseAlarm>5.0000000000000000e-01</maxFalseAlarm>
    <weightTrimRate>9.4999999999999996e-01</weightTrimRate>
    <maxDepth>1</maxDepth>
    <maxWeakCount>100</maxWeakCount></stageParams>
  <featureParams>
    <maxCatCount>256</maxCatCount>
    <featSize>1</featSize></featureParams>
  <stageNum>20</stageNum>
  <stages>
    <!-- stage 0 -->
    <_>
      <maxWeakCount>4</maxWeakCount>
      <stageThreshold>-4.4979479163885117e-02</stageThreshold>
      <weakClassifiers>
        <_>
          <internalNodes>
            0 -1 40 -2131584393 -470615305 82549871 1795161975
            -1510889408 -202130958 -2127081471 -268435653</internalNodes>
          <leafValues>
            -6.8336027860641479e-01 7.7356106042861938e-01</leafValues></_>
        <_>
          <internalNodes>
            0 -1 83 1968374719 1972502665 285307287 487654682 671090395
            923418922 553748731 520814715</internalNodes>
          <leafValues>
            -7.2338187694549561e-01 6.2593334913253784e-01</leafValues></_>
        <_>
          <internalNodes>
            0 -1 20 -128452131 -1072474799 -1291644666 -367275745
            1086980311 -983103295 -486301421 -9475045</internalNodes>
          <leafValues>
            -6.8630081415176392e-01 6.6224318742752075e-01</leafValues></_>
        <_>
          <internalNodes>
            0 -1 66 -2056272635 6291958 -134301789 1106738941
            -2038574987 -989891467 -772420909 -269493129</internalNodes>
          <leafValues>
            -6.4979577064514160e-01 7.4561542272567749e-01</leafValues></_></weakClassifiers></_>
    <!-- stage 1 -->
    <_>
      <maxWeakCount>4</maxWeakCount>
      <stageThreshold>-1.7027896642684937e-01</stageThreshold>
      <weakClassifiers>
        <_>
          <internalNodes>
            0 -1 31 -228535055 -419766530 1127960593 268387673
            -181214992 -549726277 990052358 -1342468302</internalNodes>
          <leafValues>
            -6.5079367160797119e-01 7.1586036682128906e-01</leafValues></_>
        <_>
          <internalNodes>
            0 -1 89 -593604523 1561415765 1610732827 2107054217
            -2147335000 -542998475 -335034180 -80790113</internalNodes>
          <leafValues>
            -6.0003370046615601e-01 6.5258789062500000e-01</leafValues></_>
        <_>
          <internalNodes>
            0 -1 16 -433913934 -213700607 -784084727 -247004365
            134349346 -1927217152 704979255 -807980170</internalNodes>
          <leafValues>
            -7.2185492515563965e-01 5.4951131343841553e-01</leafValues></_>
        <_>
          <internalNodes>
            0 -1 46 1231640413 15516048 268435729 1234509971 -1860103666
            48922632 134875675 -1189492536</internalNodes>
          <leafValues>
            -7.2158455848693848e-01 5.6425064802169800e-01</leafValues></_></weakClassifiers></_>
    <!-- stage 2 -->
    <_>
      <maxWeakCount>4</maxWeakCount>
      <stageThreshold>-2.1645492315292358e-01</stageThreshold>
      <weakClassifiers>
        <_>
          <internalNodes>
            0 -1 92 -992473004 1433337877 1090806921 1930888529
            -875994676 -636812607 -1052733027 1069484303</internalNodes>
          <leafValues>
            -7.1868133544921875e-01 6.4584529399871826e-01</leafValues></_>
        <_>
          <internalNodes>
            0 -1 9 -240001569 -991985514 218181773 556253315 1107485813
            -75249627 1999734819 -9744105</internalNodes>
          <leafValues>
            -5.8512246608734131e-01 6.5068829059600830e-01</leafValues></_>
        <_>
          <internalNodes>
            0 -1 64 -376460031 2005101058 -1995340899 1542521941
            -2102490197 -846683768 -2004842343 -1075115518</internalNodes>
          <leafValues>
            -6.5033769607543945e-01 6.0533988475799561e-01</leafValues></_>
        <_>
          <internalNodes>
            0 -1 86 1481627667 1410564188 268656700 273678353
            -1874817014 1663146056 -2004119125 705948186</internalNodes>
          <leafValues>
            -7.5380182266235352e-01 5.1674813032150269e-01</leafValues></_></weakClassifiers></_>
    <!-- stage 3 -->
    <_>
      <maxWeakCount>5</maxWeakCount>
      <stageThreshold>-6.7860949039459229e-01</stageThreshold>
      <weakClassifiers>
        <_>
          <internalNodes>
            0 -1 84 1359291139 1938276375 353490527 1427312653 17237251
            922812416 1393038783 290155567</internalNodes>
          <leafValues>
            -8.5041552782058716e-01 6.0195755958557129e-01</leafValues></_>
        <_>
          <internalNodes>
            0 -1 10 -816854031 -49217142 -577650189 -111721184 251795687
            -1904081272 117647585 1607139761</internalNodes>
          <leafValues>
            -5.7929444313049316e-01 5.7443952560424805e-01</leafValues></_>
        <_>
          <internalNodes>
            0 -1 24 2009061623 -537162241 1061141791 69928750 931127505
            -571917 1073196414 1073205103</internalNodes>
          <leafValues>
            -5.4198187589645386e-01 6.3524597883224487e-01</leafValues></_>
        <_>
          <internalNodes>
            0 -1 65 1427504100 -985333111 805421469 -687520619 270632184
            -393598846 -1258241877 -82095157</internalNodes>
          <leafValues>
            -6.6109007596969604e-01 5.3928208351135254e-01</leafValues></_>
        <_>
          <internalNodes>
            0 -1 54 -1361701291 -133107182 -1845261805 -669854957
            -911784717 -493977201 -132147072 -549135</internalNodes>
          <leafValues>
            -6.5193468332290649e-01 5.4794132709503174e-01</leafValues></_></weakClassifiers></_>
    <!-- stage 4 -->
    <_>
      <maxWeakCount>5</maxWeakCount>
      <stageThreshold>-5.9174215793609619e-01</stageThreshold>
      <weakClassifiers>
        <_>
          <internalNodes>
            0 -1 13 -185073761 1652228087 -414980348 1719643951
            1433878775 -747110793 -179837627 -11048985</internalNodes>
          <leafValues>
            -5.5675673484802246e-01 6.7416411638259888e-01</leafValues></_>
        <_>
          <internalNodes>
            0 -1 45 -2094874377 -418834367 423630103 530256208
            -1124018769 -343112640 369760633 -1448468144</internalNodes>
          <leafValues>
            -6.0974162817001343e-01 5.7114827632904053e-01</leafValues></_>
        <_>
          <internalNodes>
            0 -1 100 -229387683 1897617473 314900499 274701435
            -356406632 -91717587 -657880421 980084827</internalNodes>
          <leafValues>
            -6.4410787820816040e-01 5.3103297948837280e-01</leafValues></_>
        <_>
          <internalNodes>
            0 -1 55 -5981723 -201356 1069232625 -80006637 -22482965
            -537039052 134941337 -1953624933</internalNodes>
          <leafValues>
            -5.5190950632095337e-01 6.0970944166183472e-01</leafValues></_>
        <_>
          <internalNodes>
            0 -1 4 -1886396421 -489782395 -2146848446 -144844309
            184603399 1074336064 36302643 -1879312085</internalNodes>
          <leafValues>
            -5.7173526287078857e-01 5.9168273210525513e-01</leafValues></_></weakClassifiers></_>
    <!-- stage 5 -->
    <_>
      <maxWeakCount>5</maxWeakCount>
      <stageThreshold>-5.8139812946319580e-01</stageThreshold>
      <weakClassifiers>
        <_>
          <internalNodes>
            0 -1 33 -1359991303 -268452423 -131075 -185039 83570682
            -1610793537 930560733 1073021401</internalNodes>
          <leafValues>
            -4.3780291080474854e-01 6.7741936445236206e-01</leafValues></_>
        <_>
          <internalNodes>
            0 -1 52 -87363470 2119943115 -2130052777 328689779 -83303437
            -1660288816 -2027765246 -271613774</internalNodes>
          <leafValues>
            -5.8228105306625366e-01 5.3713864088058472e-01</leafValues></_>
        <_>
          <internalNodes>
            0 -1 28 -421003315 1382152055 -522031891 -150994945
            -2063614257 98021847 -704805713 -180523713</internalNodes>
          <leafValues>
            -5.1109284162521362e-01 6.1759680509567261e-01</leafValues></_>
        <_>
          <internalNodes>
            0 -1 99 -80216737 756650252 1082277963 708857879 1075046475
            1523365251 -349583909 136827767</internalNodes>
          <leafValues>
            -6.1540448665618896e-01 5.5991691350936890e-01</leafValues></_>
        <_>
          <internalNodes>
            0 -1 61 -1182967682 -1324754488 1385452903 -1608447919
            -99690465 -1960542037 237971480 -1951403826</internalNodes>
          <leafValues>
            -6.8292623758316040e-01 4.9047335982322693e-01</leafValues></_></weakClassifiers></_>
    <!-- stage 6 -->
    <_>
      <maxWeakCount>5</maxWeakCount>
      <stageThreshold>-8.3425897359848022e-01</stageThreshold>
      <weakClassifiers>
        <_>
          <internalNodes>
            0 -1 12 1122427136 1073816066 776093866 -57552592 1084802479
            42008840 1883620259 1938538950</internalNodes>
          <leafValues>
            -7.1354168653488159e-01 5.9140968322753906e-01</leafValues></_>
        <_>
          <internalNodes>
            0 -1 63 -136405575 -1270218592 273879515 -1089334704
            -1467958533 -2002606015 742070777 471403009</internalNodes>
          <leafValues>
            -6.3486313819885254e-01 4.9625873565673828e-01</leafValues></_>
        <_>
          <internalNodes>
            0 -1 104 1471830229 -652802750 -2126409013 1910375787
            -1031788485 -1065312127 -1476331319 974796858</internalNodes>
          <leafValues>
            -6.9749736785888672e-01 4.5241150259971619e-01</leafValues></_>
        <_>
          <internalNodes>
            0 -1 79 -112765793 1502930312 -520013735 1187053768
            -520058954 -1440378235 -335263337 -901168306</internalNodes>
          <leafValues>
            -5.9216910600662231e-01 5.2044773101806641e-01</leafValues></_>
        <_>
          <internalNodes>
            0 -1 5 -1325772317 139513859 -780037821 -87026475 34490368
            -233758653 -125317803 -592211199</internalNodes>
          <leafValues>
            -6.3226091861724854e-01 5.0778090953826904e-01</leafValues></_></weakClassifiers></_>
    <!-- stage 7 -->
    <_>
      <maxWeakCount>5</maxWeakCount>
      <stageThreshold>-9.2900174856185913e-01</stageThreshold>
      <weakClassifiers>
        <_>
          <internalNodes>
            0 -1 82 1574001790 422895980 1262557492 -1190457021
            671155403 536889512 421007634 143599698</internalNodes>
          <leafValues>
            -7.3264783620834351e-01 5.9911650419235229e-01</leafValues></_>
        <_>
          <internalNodes>
            0 -1 95 -1058647947 1534148658 -838612013 1779134739
            1671875000 -375258877 -2012631908 -39255377</internalNodes>
          <leafValues>
            -6.2313973903656006e-01 4.9919337034225464e-01</leafValues></_>
        <_>
          <internalNodes>
            0 -1 35 542175313 -1609431523 -2143240043 -930840434
            -860643807 -897384384 -511126475 -292947909</internalNodes>
          <leafValues>
            -7.5020432472229004e-01 4.6322628855705261e-01</leafValues></_>
        <_>
          <internalNodes>
            0 -1 70 1431690974 2139424320 -1593784835 1772030232
            268554396 -1138717824 1216790698 -616212770</internalNodes>
          <leafValues>
            -6.2641549110412598e-01 5.2329653501510620e-01</leafValues></_>
        <_>
          <internalNodes>
            0 -1 75 706613077 -49073519 -1862002209 424509525
            -1450307591 -1131870066 2122485228 1058312409</internalNodes>
          <leafValues>
            -6.8229645490646362e-01 4.7164133191108704e-01</leafValues></_></weakClassifiers></_>
    <!-- stage 8 -->
    <_>
      <maxWeakCount>5</maxWeakCount>
      <stageThreshold>-8.8065618276596069e-01</stageThreshold>
      <weakClassifiers>
        <_>
          <internalNodes>
            0 -1 93 3 -791148021 16957611 -1182171079 -1065319829
            -1434449720 1208133839 1996905819</internalNodes>
          <leafValues>
            -6.7396593093872070e-01 6.0201227664947510e-01</leafValues></_>
        <_>
          <internalNodes>
            0 -1 21 1904205055 -451181992 51249369 105652430 1612772163
            -1642999774 620994707 1869869823</internalNodes>
          <leafValues>
            -5.9512346982955933e-01 5.1844829320907593e-01</leafValues></_>
        <_>
          <internalNodes>
            0 -1 76 -2067529712 -620634043 -669957639 -44859328
            679860376 -290881405 -1962229106 336662945</internalNodes>
          <leafValues>
            -7.3296171426773071e-01 4.5531377196311951e-01</leafValues></_>
        <_>
          <internalNodes>
            0 -1 48 -1480858569 1627611280 58788267 -297407421
            -1077930189 -132120388 348147289 -1161851720</internalNodes>
          <leafValues>
            -6.7277783155441284e-01 4.4387215375900269e-01</leafValues></_>
        <_>
          <internalNodes>
            0 -1 88 -472237987 2098402353 1354880473 2106003717
            -2117342996 -640008034 -2004162305 974957199</internalNodes>
          <leafValues>
            -5.9993362426757812e-01 5.1819449663162231e-01</leafValues></_></weakClassifiers></_>
    <!-- stage 9 -->
    <_>
      <maxWeakCount>5</maxWeakCount>
      <stageThreshold>-5.5823892354965210e-01</stageThreshold>
      <weakClassifiers>
        <_>
          <internalNodes>
            0 -1 18 1226018638 -2142862701 1094730752 574849216
            1895952737 -1341914800 755103745 1599459685</internalNodes>
          <leafValues>
            -6.3592231273651123e-01 5.9395974874496460e-01</leafValues></_>
        <_>
          <internalNodes>
            0 -1 91 -32974691 1561264474 16826719 844716355 -1966552600
            -113180278 -1027542277 974847866</internalNodes>
          <leafValues>
            -5.4949122667312622e-01 5.1993614435195923e-01</leafValues></_>
        <_>
          <internalNodes>
            0 -1 78 1555037683 -925795585 1358347183 1759051455
            -856559435 -923501066 -895365745 -559757</internalNodes>
          <leafValues>
            -4.2945301532745361e-01 6.6188448667526245e-01</leafValues></_>
        <_>
          <internalNodes>
            0 -1 11 -1014499593 -812531564 1091895616 426459222 637615
            772774473 50465351 2145338593</internalNodes>
          <leafValues>
            -5.3972023725509644e-01 5.2828276157379150e-01</leafValues></_>
        <_>
          <internalNodes>
            0 -1 39 1367735769 1431634382 -2063217519 -1584266914
            1191295897 -799214800 973466283 776407850</internalNodes>
          <leafValues>
            -5.6441694498062134e-01 5.3723698854446411e-01</leafValues></_></weakClassifiers></_>
    <!-- stage 10 -->
    <_>
      <maxWeakCount>5</maxWeakCount>
      <stageThreshold>-7.0530015230178833e-01</stageThreshold>
      <weakClassifiers>
        <_>
          <internalNodes>
            0 -1 67 857157974 864427472 85024237 -2140142140 302133296
            570476874 690227224 112191710</internalNodes>
          <leafValues>
            -7.2514617443084717e-01 5.6404733657836914e-01</leafValues></_>
        <_>
          <internalNodes>
            0 -1 8 -715664385 -1412971752 155259917 37864576 -213190953
            -393674572 -368273063 2133125299</internalNodes>
          <leafValues>
            -5.4035103321075439e-01 5.3595888614654541e-01</leafValues></_>
        <_>
          <internalNodes>
            0 -1 69 -674315564 856737992 -643310828 319606817 -828921686
            -771178492 -1677617016 -1165245563</internalNodes>
          <leafValues>
            -6.1117762327194214e-01 5.0434470176696777e-01</leafValues></_>
        <_>
          <internalNodes>
            0 -1 68 -582783109 1427129464 50925617 109781571 -377439222
            -670852734 -658486971 -1448203687</internalNodes>
          <leafValues>
            -6.5046000480651855e-01 4.4844776391983032e-01</leafValues></_>
        <_>
          <internalNodes>
            0 -1 7 -617614131 1392609883 470337898 -551792607 1200551129
            16814089 1444118953 -1188065139</internalNodes>
          <leafValues>
            -5.4366874694824219e-01 5.9513038396835327e-01</leafValues></_></weakClassifiers></_>
    <!-- stage 11 -->
    <_>
      <maxWeakCount>6</maxWeakCount>
      <stageThreshold>-2.6566529273986816e-01</stageThreshold>
      <weakClassifiers>
        <_>
          <internalNodes>
            0 -1 57 -856734237 1147272950 1577027597 1308568575
            -822157552 -672071821 2020824925 -210272449</internalNodes>
          <leafValues>
            -4.3957969546318054e-01 6.4518111944198608e-01</leafValues></_>
        <_>
          <internalNodes>
            0 -1 47 444630008 -682612593 -1572732577 -1312190202
            -746551063 -1953955819 1096059119 437267209</internalNodes>
          <leafValues>
            -6.2270033359527588e-01 4.5592319965362549e-01</leafValues></_>
        <_>
          <internalNodes>
            0 -1 90 825595 1159726164 1226961899 -674575936 604242158
            694288759 251882395 526321678</internalNodes>
          <leafValues>
            -6.5633004903793335e-01 4.0985298156738281e-01</leafValues></_>
        <_>
          <internalNodes>
            0 -1 25 1910616927 -427458529 -180057828 -1370419427
            192915990 -2130673626 -611448109 -1446819307</internalNodes>
          <leafValues>
            -5.5457699298858643e-01 5.3541195392608643e-01</leafValues></_>
        <_>
          <internalNodes>
            0 -1 41 1296560354 1947976765 1170432050 328268048
            -641019142 -1555873790 1250566450 -20740430</internalNodes>
          <leafValues>
            -6.3466227054595947e-01 4.5654490590095520e-01</leafValues></_>
        <_>
          <internalNodes>
            0 -1 102 -903724975 1929976597 -1340075937 1598249219
            -2010544100 -1430208277 -2004825975 -275142001</internalNodes>
          <leafValues>
            -5.8007788658142090e-01 4.9737748503684998e-01</leafValues></_></weakClassifiers></_>
    <!-- stage 12 -->
    <_>
      <maxWeakCount>7</maxWeakCount>
      <stageThreshold>-7.6153558492660522e-01</stageThreshold>
      <weakClassifiers>
        <_>
          <internalNodes>
            0 -1 81 1023172645 284178686 -924013348 -570589955 778315555
            39130997 800591652 -683</internalNodes>
          <leafValues>
            -5.6502240896224976e-01 5.9977197647094727e-01</leafValues></_>
        <_>
          <internalNodes>
            0 -1 106 -18877473 1075004865 67257377 258205 1610758172
            589320196 2013301146 686812383</internalNodes>
          <leafValues>
            -5.8268016576766968e-01 4.6200013160705566e-01</leafValues></_>
        <_>
          <internalNodes>
            0 -1 38 154784027 2059374519 -32949 440078122 1609894623
            -655372 2138144682 1593024160</internalNodes>
          <leafValues>
            -4.9942451715469360e-01 5.4728454351425171e-01</leafValues></_>
        <_>
          <internalNodes>
            0 -1 0 -951139842 -233828215 -721174523 -787414655
            -2132368967 1073782922 -1870429457 1942016346</internalNodes>
          <leafValues>
            -5.7966530323028564e-01 4.6557077765464783e-01</leafValues></_>
        <_>
          <internalNodes>
            0 -1 43 -934825549 -465123302 17420405 -754716667 2047467954
            1033312328 -1878294507 1061245242</internalNodes>
          <leafValues>
            -6.3592892885208130e-01 4.4669726490974426e-01</leafValues></_>
        <_>
          <internalNodes>
            0 -1 72 -536881269 -1678865886 -1342205433 -8421557
            -19426390 -269543062 -1476424296 -278954097</internalNodes>
          <leafValues>
            -5.2991586923599243e-01 5.6213903427124023e-01</leafValues></_>
        <_>
          <internalNodes>
            0 -1 22 -1592533775 -788166588 335565507 1435173013
            -2013087286 -1073508208 112851 528159188</internalNodes>
          <leafValues>
            -6.3849198818206787e-01 5.0323933362960815e-01</leafValues></_></weakClassifiers></_>
    <!-- stage 13 -->
    <_>
      <maxWeakCount>7</maxWeakCount>
      <stageThreshold>-8.4343767166137695e-01</stageThreshold>
      <weakClassifiers>
        <_>
          <internalNodes>
            0 -1 27 1883765847 -529335557 -143145728 -285278401
            569869399 -276830337 1173841392 -312660683</internalNodes>
          <leafValues>
            -4.5142856240272522e-01 6.1910450458526611e-01</leafValues></_>
        <_>
          <internalNodes>
            0 -1 53 -1350345360 -305331992 939569239 500561937
            -1836935178 -132234101 -536589185 -280432565</internalNodes>
          <leafValues>
            -5.4097670316696167e-01 4.8009237647056580e-01</leafValues></_>
        <_>
          <internalNodes>
            0 -1 74 -565587699 860454928 -1341124967 39141581
            -1333141314 973604884 21825772 973664235</internalNodes>
          <leafValues>
            -6.9277036190032959e-01 3.7312561273574829e-01</leafValues></_>
        <_>
          <internalNodes>
            0 -1 101 -380694409 -710380834 1568625877 1462712191
            -545322476 -1881243825 -348996321 -2004318209</internalNodes>
          <leafValues>
            -4.9671456217765808e-01 5.3060674667358398e-01</leafValues></_>
        <_>
          <internalNodes>
            0 -1 26 -768747745 -1593768944 488689951 -2130460646
            -511536991 -553123832 -511500158 1323475490</internalNodes>
          <leafValues>
            -5.8524608612060547e-01 4.5568731427192688e-01</leafValues></_>
        <_>
          <internalNodes>
            0 -1 49 771889021 -389361599 -1727823777 -1551456253
            -1551218570 -114792182 -1719035605 -1079177193</internalNodes>
          <leafValues>
            -6.0161936283111572e-01 4.7514113783836365e-01</leafValues></_>
        <_>
          <internalNodes>
            0 -1 73 -937108792 1929610760 1578263 112108050 -519994968
            -1583153150 1922609103 -1509220317</internalNodes>
          <leafValues>
            -6.5667343139648438e-01 4.6331551671028137e-01</leafValues></_></weakClassifiers></_>
    <!-- stage 14 -->
    <_>
      <maxWeakCount>7</maxWeakCount>
      <stageThreshold>-5.6686776876449585e-01</stageThreshold>
      <weakClassifiers>
        <_>
          <internalNodes>
            0 -1 29 2109693235 -268480513 1061097746 251272892
            -134916153 -565296 2136284702 536220924</internalNodes>
          <leafValues>
            -4.6332046389579773e-01 6.1831152439117432e-01</leafValues></_>
        <_>
          <internalNodes>
            0 -1 98 -268959805 1156345453 -2002915587 -44237059
            1953961629 41244657 2130402203 -67184653</internalNodes>
          <leafValues>
            -4.4002997875213623e-01 5.7228791713714600e-01</leafValues></_>
        <_>
          <internalNodes>
            0 -1 17 -1995714863 -643858240 554555634 -573751035 16812795
            134316168 85120055 2145370289</internalNodes>
          <leafValues>
            -5.3476208448410034e-01 5.0971716642379761e-01</leafValues></_>
        <_>
          <internalNodes>
            0 -1 77 -526844491 -641543468 -1591041636 -418262320
            -1698375443 -1925166976 394826201 1073349993</internalNodes>
          <leafValues>
            -5.8915573358535767e-01 4.7410836815834045e-01</leafValues></_>
        <_>
          <internalNodes>
            0 -1 50 -1601568687 -490470780 -1790107657 -555216245
            -2092859252 -1362096088 -393856802 -215340625</internalNodes>
          <leafValues>
            -5.3780347108840942e-01 5.3438091278076172e-01</leafValues></_>
        <_>
          <internalNodes>
            0 -1 71 -792530557 -170917720 293671159 1964232724
            1099031293 -1901985632 560644314 2137460874</internalNodes>
          <leafValues>
            -5.9748303890228271e-01 5.1208961009979248e-01</leafValues></_>
        <_>
          <internalNodes>
            0 -1 6 -250095266 -262962685 1090716216 -247397881 15963227
            -1828061018 -746183705 -343353311</internalNodes>
          <leafValues>
            -5.8424079418182373e-01 5.3144919872283936e-01</leafValues></_></weakClassifiers></_>
    <!-- stage 15 -->
    <_>
      <maxWeakCount>6</maxWeakCount>
      <stageThreshold>-2.2782646119594574e-01</stageThreshold>
      <weakClassifiers>
        <_>
          <internalNodes>
            0 -1 3 -1976830125 -893388894 113213218 -553648532 17153827
            2097110824 124736596 1518296947</internalNodes>
          <leafValues>
            -3.4775888919830322e-01 6.6001290082931519e-01</leafValues></_>
        <_>
          <internalNodes>
            0 -1 51 -199310309 -930987648 -171188997 220747887 -41900613
            -106888687 -335488462 -1160831457</internalNodes>
          <leafValues>
            -5.3806453943252563e-01 5.0149661302566528e-01</leafValues></_>
        <_>
          <internalNodes>
            0 -1 32 -197097232 -1110441213 -1073737507 925672457
            -2147366401 -1074191271 696549501 406370414</internalNodes>
          <leafValues>
            -5.9751635789871216e-01 4.3976381421089172e-01</leafValues></_>
        <_>
          <internalNodes>
            0 -1 14 -740897061 -1567358399 -855068465 672101127
            -770411930 -621629440 1407480949 -337440602</internalNodes>
          <leafValues>
            -5.0302636623382568e-01 5.1372355222702026e-01</leafValues></_>
        <_>
          <internalNodes>
            0 -1 59 11629653 1646264577 -1052580597 -385367807
            -1063397915 -444571646 -938518247 -34977670</internalNodes>
          <leafValues>
            -7.0590192079544067e-01 3.8708561658859253e-01</leafValues></_>
        <_>
          <internalNodes>
            0 -1 36 1493662599 164975723 -649751099 930528010
            -1726969390 -569785974 -1023353467 1264565182</internalNodes>
          <leafValues>
            -5.9736025333404541e-01 4.7615998983383179e-01</leafValues></_></weakClassifiers></_>
    <!-- stage 16 -->
    <_>
      <maxWeakCount>6</maxWeakCount>
      <stageThreshold>-1.1724989414215088e+00</stageThreshold>
      <weakClassifiers>
        <_>
          <internalNodes>
            0 -1 42 1752031954 1375666524 1847481627 141653387
            -1867584984 -403548269 -1430570183 653460234</internalNodes>
          <leafValues>
            -4.0900900959968567e-01 6.2431609630584717e-01</leafValues></_>
        <_>
          <internalNodes>
            0 -1 105 -95468980 2134982931 1073971485 941453580
            -536632640 1351114760 281073837 2134459515</internalNodes>
          <leafValues>
            -6.3193392753601074e-01 4.0616795420646667e-01</leafValues></_>
        <_>
          <internalNodes>
            0 -1 34 83953137 1392857217 -2138976045 -1750772519 51057124
            -1912143743 1135637379 525140433</internalNodes>
          <leafValues>
            -5.6221455335617065e-01 4.8810857534408569e-01</leafValues></_>
        <_>
          <internalNodes>
            0 -1 15 -1208731649 -407179357 120045151 -272646622
            -143134268 -8958129 -1357908001 -268999049</internalNodes>
          <leafValues>
            -5.0416845083236694e-01 5.3228652477264404e-01</leafValues></_>
        <_>
          <internalNodes>
            0 -1 56 998346412 1938838233 -1727918805 -648453304
            -933703878 -1061109541 67536265 -1622209268</internalNodes>
          <leafValues>
            -6.8995773792266846e-01 4.1904541850090027e-01</leafValues></_>
        <_>
          <internalNodes>
            0 -1 62 -1080771111 -29067919 1073626555 2053086463 -7819335
            -241795 -819294536 -1978798673</internalNodes>
          <leafValues>
            -5.2232027053833008e-01 5.7168805599212646e-01</leafValues></_></weakClassifiers></_>
    <!-- stage 17 -->
    <_>
      <maxWeakCount>6</maxWeakCount>
      <stageThreshold>-3.3829939365386963e-01</stageThreshold>
      <weakClassifiers>
        <_>
          <internalNodes>
            0 -1 94 1616511056 1795622945 1343246723 448200709 880866784
            -402575200 -1128101853 1057622794</internalNodes>
          <leafValues>
            -7.0348834991455078e-01 5.6142240762710571e-01</leafValues></_>
        <_>
          <internalNodes>
            0 -1 60 106365046 -649784830 -250367489 17842447 808156102
            2098079880 824726595 804426634</internalNodes>
          <leafValues>
            -6.6736876964569092e-01 3.9776799082756042e-01</leafValues></_>
        <_>
          <internalNodes>
            0 -1 69 2018180844 1128509704 -716781043 1392541696
            -343224134 -133852798 -1249148792 -1074553363</internalNodes>
          <leafValues>
            -6.2778121232986450e-01 4.2206031084060669e-01</leafValues></_>
        <_>
          <internalNodes>
            0 -1 97 -2008812749 -934483839 1249902991 -1047494565
            -1987493719 -2146940789 495591835 -427767422</internalNodes>
          <leafValues>
            -5.2334100008010864e-01 5.1219868659973145e-01</leafValues></_>
        <_>
          <internalNodes>
            0 -1 44 -13166855 -294174863 -1238403843 -613710722
            -17985762 -1401552941 -565197325 -819098593</internalNodes>
          <leafValues>
            -4.4520866870880127e-01 6.5859502553939819e-01</leafValues></_>
        <_>
          <internalNodes>
            0 -1 87 -2142172847 -170245089 1073845351 1025072461
            -2146746164 1494941832 -498948069 998910699</internalNodes>
          <leafValues>
            -5.5732327699661255e-01 5.1391029357910156e-01</leafValues></_></weakClassifiers></_>
    <!-- stage 18 -->
    <_>
      <maxWeakCount>6</maxWeakCount>
      <stageThreshold>-6.3853181898593903e-02</stageThreshold>
      <weakClassifiers>
        <_>
          <internalNodes>
            0 -1 23 1190344259 -1468089345 922879587 137036835
            -1015611147 -553662987 1392993351 1399277551</internalNodes>
          <leafValues>
            -5.2608698606491089e-01 5.9885054826736450e-01</leafValues></_>
        <_>
          <internalNodes>
            0 -1 1 -732568854 1406402560 -1073733215 -1740553949
            1359538863 1073774734 318877849 1370128539</internalNodes>
          <leafValues>
            -5.8600491285324097e-01 4.7076618671417236e-01</leafValues></_>
        <_>
          <internalNodes>
            0 -1 85 -536884721 229543599 532616831 2147438527
            -1084076676 1198530559 1476334879 -679782401</internalNodes>
          <leafValues>
            -4.7172123193740845e-01 5.9331637620925903e-01</leafValues></_>
        <_>
          <internalNodes>
            0 -1 65 -179208706 1220748038 545374537 -651996924
            1921767922 -628951030 -788151818 1858564339</internalNodes>
          <leafValues>
            -5.4912602901458740e-01 5.0973737239837646e-01</leafValues></_>
        <_>
          <internalNodes>
            0 -1 37 -1584396559 -705920568 420495729 1402028105
            -1564403533 -997635685 328382651 689508633</internalNodes>
          <leafValues>
            -5.4961967468261719e-01 5.1525479555130005e-01</leafValues></_>
        <_>
          <internalNodes>
            0 -1 58 -1790623233 -1593622201 1360287 2097156112
            -1794489132 -1355263832 -752332548 -502513654</internalNodes>
          <leafValues>
            -5.6180340051651001e-01 5.3014218807220459e-01</leafValues></_></weakClassifiers></_>
    <!-- stage 19 -->
    <_>
      <maxWeakCount>7</maxWeakCount>
      <stageThreshold>-3.6946269869804382e-01</stageThreshold>
      <weakClassifiers>
        <_>
          <internalNodes>
            0 -1 107 -286273977 623062581 1320052899 2682672 1744823846
            1602035978 -75526513 1073725396</internalNodes>
          <leafValues>
            -3.1034481525421143e-01 6.5688192844390869e-01</leafValues></_>
        <_>
          <internalNodes>
            0 -1 103 -90223011 -47102189 1848683135 -42893317 -755333048
            1870372705 -850346353 -1078214725</internalNodes>
          <leafValues>
            -3.5880443453788757e-01 6.0434955358505249e-01</leafValues></_>
        <_>
          <internalNodes>
            0 -1 2 -439627125 1099026563 25252256 1610747907 170017026
            1627590664 25853028 -223690025</internalNodes>
          <leafValues>
            -5.0702399015426636e-01 4.9481424689292908e-01</leafValues></_>
        <_>
          <internalNodes>
            0 -1 96 1836961772 1865899823 1560145631 1853652831
            -167772401 381530033 1566563796 -33687587</internalNodes>
          <leafValues>
            -4.5197120308876038e-01 5.3104645013809204e-01</leafValues></_>
        <_>
          <internalNodes>
            0 -1 80 -584689218 1996869824 -1526677248 -1047002751
            429966557 -623897961 1644187091 -875621867</internalNodes>
          <leafValues>
            -5.7201063632965088e-01 4.3491867184638977e-01</leafValues></_>
        <_>
          <internalNodes>
            0 -1 30 -1576542579 541102091 -666836143 -649952832
            -2046701020 -2110914558 -2134556432 -1123972949</internalNodes>
          <leafValues>
            -5.4820764064788818e-01 4.7670924663543701e-01</leafValues></_>
        <_>
          <internalNodes>
            0 -1 19 -141846643 1729233160 -1035694834 1907429396
            1108131919 537985040 -1056194418 -138700661</internalNodes>
          <leafValues>
            -5.7639759778976440e-01 4.7235491871833801e-01</leafValues></_></weakClassifiers></_></stages>
  <features>
    <_>
      <rect>
        0 5 12 11</rect></_>
    <_>
      <rect>
        0 6 13 11</rect></_>
    <_>
      <rect>
        0 9 5 7</rect></_>
    <_>
      <rect>
        2 4 5 7</rect></_>
    <_>
      <rect>
        2 9 5 5</rect></_>
    <_>
      <rect>
        3 9 5 8</rect></_>
    <_>
      <rect>
        4 11 8 8</rect></_>
    <_>
      <rect>
        4 12 12 7</rect></_>
    <_>
      <rect>
        4 15 8 4</rect></_>
    <_>
      <rect>
        4 16 7 4</rect></_>
    <_>
      <rect>
        5 4 6 4</rect></_>
    <_>
      <rect>
        5 7 3 4</rect></_>
    <_>
      <rect>
        5 8 11 8</rect></_>
    <_>
      <rect>
        5 14 9 5</rect></_>
    <_>
      <rect>
        5 17 5 4</rect></_>
    <_>
      <rect>
        5 17 8 3</rect></_>
    <_>
      <rect>
        6 4 7 6</rect></_>
    <_>
      <rect>
        6 7 3 3</rect></_>
    <_>
      <rect>
        6 10 6 7</rect></_>
    <_>
      <rect>
        6 11 10 7</rect></_>
    <_>
      <rect>
        6 13 8 6</rect></_>
    <_>
      <rect>
        6 14 5 5</rect></_>
    <_>
      <rect>
        7 2 3 5</rect></_>
    <_>
      <rect>
        7 13 7 5</rect></_>
    <_>
      <rect>
        7 14 6 4</rect></_>
    <_>
      <rect>
        7 14 6 6</rect></_>
    <_>
      <rect>
        7 15 8 4</rect></_>
    <_>
      <rect>
        8 12 7 7</rect></_>
    <_>
      <rect>
        8 12 9 7</rect></_>
    <_>
      <rect>
        9 13 6 4</rect></_>
    <_>
      <rect>
        9 14 8 8</rect></_>
    <_>
      <rect>
        9 15 7 4</rect></_>
    <_>
      <rect>
        10 1 8 4</rect></_>
    <_>
      <rect>
        10 4 4 4</rect></_>
    <_>
      <rect>
        10 5 3 2</rect></_>
    <_>
      <rect>
        10 11 7 7</rect></_>
    <_>
      <rect>
        10 14 3 4</rect></_>
    <_>
      <rect>
        11 3 5 3</rect></_>
    <_>
      <rect>
        11 10 4 6</rect></_>
    <_>
      <rect>
        11 12 4 4</rect></_>
    <_>
      <rect>
        11 12 7 6</rect></_>
    <_>
      <rect>
        11 14 5 5</rect></_>
    <_>
      <rect>
        11 15 4 4</rect></_>
    <_>
      <rect>
        11 15 7 5</rect></_>
    <_>
      <rect>
        11 16 5 2</rect></_>
    <_>
      <rect>
        11 16 6 3</rect></_>
    <_>
      <rect>
        11 16 8 3</rect></_>
    <_>
      <rect>
        12 0 6 5</rect></_>
    <_>
      <rect>
        12 8 7 7</rect></_>
    <_>
      <rect>
        12 11 2 2</rect></_>
    <_>
      <rect>
        12 11 4 2</rect></_>
    <_>
      <rect>
        12 14 6 5</rect></_>
    <_>
      <rect>
        12 16 4 4</rect></_>
    <_>
      <rect>
        12 17 5 3</rect></_>
    <_>
      <rect>
        13 4 5 10</rect></_>
    <_>
      <rect>
        13 14 4 3</rect></_>
    <_>
      <rect>
        13 15 3 3</rect></_>
    <_>
      <rect>
        13 16 7 4</rect></_>
    <_>
      <rect>
        13 18 5 2</rect></_>
    <_>
      <rect>
        14 9 6 8</rect></_>
    <_>
      <rect>
        14 10 5 6</rect></_>
    <_>
      <rect>
        14 13 6 4</rect></_>
    <_>
      <rect>
        14 14 3 3</rect></_>
    <_>
      <rect>
        14 14 4 3</rect></_>
    <_>
      <rect>
        14 17 3 2</rect></_>
    <_>
      <rect>
        14 17 4 3</rect></_>
    <_>
      <rect>
        15 7 7 9</rect></_>
    <_>
      <rect>
        15 11 5 5</rect></_>
    <_>
      <rect>
        15 14 5 5</rect></_>
    <_>
      <rect>
        15 17 2 3</rect></_>
    <_>
      <rect>
        15 17 4 3</rect></_>
    <_>
      <rect>
        15 18 3 1</rect></_>
    <_>
      <rect>
        15 19 2 1</rect></_>
    <_>
      <rect>
        15 19 3 3</rect></_>
    <_>
      <rect>
        16 6 7 3</rect></_>
    <_>
      <rect>
        16 7 2 2</rect></_>
    <_>
      <rect>
        16 13 3 2</rect></_>
    <_>
      <rect>
        16 13 3 3</rect></_>
    <_>
      <rect>
        16 13 6 6</rect></_>
    <_>
      <rect>
        16 14 4 5</rect></_>
    <_>
      <rect>
        16 15 4 4</rect></_>
    <_>
      <rect>
        17 11 6 5</rect></_>
    <_>
      <rect>
        17 15 4 3</rect></_>
    <_>
      <rect>
        17 17 2 2</rect></_>
    <_>
      <rect>
        17 19 2 1</rect></_>
    <_>
      <rect>
        17 20 1 1</rect></_>
    <_>
      <rect>
        18 5 7 4</rect></_>
    <_>
      <rect>
        18 6 3 2</rect></_>
    <_>
      <rect>
        18 6 4 3</rect></_>
    <_>
      <rect>
        18 9 4 4</rect></_>
    <_>
      <rect>
        18 18 2 1</rect></_>
    <_>
      <rect>
        19 3 5 4</rect></_>
    <_>
      <rect>
        19 6 3 5</rect></_>
    <_>
      <rect>
        19 19 1 1</rect></_>
    <_>
      <rect>
        20 7 3 4</rect></_>
    <_>
      <rect>
        20 9 3 4</rect></_>
    <_>
      <rect>
        20 10 6 5</rect></_>
    <_>
      <rect>
        20 13 5 7</rect></_>
    <_>
      <rect>
        20 14 6 5</rect></_>
    <_>
      <rect>
        21 3 6 9</rect></_>
    <_>
      <rect>
        21 4 5 4</rect></_>
    <_>
      <rect>
        21 14 2 1</rect></_>
    <_>
      <rect>
        22 10 2 3</rect></_>
    <_>
      <rect>
        22 12 3 2</rect></_>
    <_>
      <rect>
        23 2 2 6</rect></_>
    <_>
      <rect>
        23 8 3 4</rect></_>
    <_>
      <rect>
        23 10 5 3</rect></_>
    <_>
      <rect>
        26 9 4 6</rect></_></features></cascade>
</opencv_storage>
